network unknown {
}
variable cole_jornada {
    type discrete [ 5 ] { 0, 2, 3, 4, 5 };
}
variable cole_naturaleza {
    type discrete [ 2 ] { 0, 1 };
}
variable desemp_ingles {
    type discrete [ 5 ] { 1, 2, 3, 4, 5 };
}
variable estu_genero {
    type discrete [ 2 ] { 0, 1 };
}
variable fami_cuartoshogar {
    type discrete [ 6 ] { 1, 2, 3, 4, 5, 6 };
}
variable fami_educacionmadre {
    type discrete [ 6 ] { 0, 1, 2, 3, 4, 5 };
}
variable fami_educacionpadre {
    type discrete [ 6 ] { 0, 1, 2, 3, 4, 5 };
}
variable fami_estratovivienda {
    type discrete [ 6 ] { 1, 2, 3, 4, 5, 6 };
}
variable fami_personashogar {
    type discrete [ 5 ] { 1, 2, 3, 4, 5 };
}
variable fami_tieneautomovil {
    type discrete [ 2 ] { 0, 1 };
}
variable fami_tienecomputador {
    type discrete [ 2 ] { 0, 1 };
}
variable fami_tieneinternet {
    type discrete [ 2 ] { 0, 1 };
}
variable fami_tienelavadora {
    type discrete [ 2 ] { 0, 1 };
}
variable punt_global {
    type discrete [ 5 ] { 1.0, 2.0, 3.0, 4.0, 5.0 };
}
probability ( cole_jornada | cole_naturaleza ) {
    ( 0 ) 0.11199462783930418, 0.006299497958792116, 0.7990342901606319, 0.03951309464169607, 0.04315848939957577;
    ( 1 ) 0.43385782754923435, 0.2759963710009989, 0.009008348530530329, 0.06630254488137022, 0.21483490803786623;

}
probability ( cole_naturaleza | fami_educacionmadre, fami_educacionpadre ) {
    ( 0, 0 ) 0.4899561355921695, 0.5100438644078304;
    ( 0, 1 ) 0.2578368347803035, 0.7421631652196965;
    ( 0, 2 ) 0.3785877099130111, 0.6214122900869888;
    ( 0, 3 ) 0.46741589983406245, 0.5325841001659376;
    ( 0, 4 ) 0.7131555378644641, 0.2868444621355358;
    ( 0, 5 ) 0.7728698379508625, 0.2271301620491375;
    ( 1, 0 ) 0.21493592493797686, 0.7850640750620232;
    ( 1, 1 ) 0.23731685495958513, 0.7626831450404149;
    ( 1, 2 ) 0.2167792606512145, 0.7832207393487856;
    ( 1, 3 ) 0.2836148344052413, 0.7163851655947586;
    ( 1, 4 ) 0.40249407516081703, 0.597505924839183;
    ( 1, 5 ) 0.3541329011345219, 0.6458670988654781;
    ( 2, 0 ) 0.2550568596919762, 0.7449431403080239;
    ( 2, 1 ) 0.24028230512674267, 0.7597176948732574;
    ( 2, 2 ) 0.31210385228857507, 0.6878961477114249;
    ( 2, 3 ) 0.39867133396723353, 0.6013286660327665;
    ( 2, 4 ) 0.5571568638374205, 0.44284313616257953;
    ( 2, 5 ) 0.697568061982137, 0.3024319380178629;
    ( 3, 0 ) 0.366719969408861, 0.633280030591139;
    ( 3, 1 ) 0.3275306941831371, 0.6724693058168629;
    ( 3, 2 ) 0.4168357607086935, 0.5831642392913065;
    ( 3, 3 ) 0.4987925724913864, 0.5012074275086136;
    ( 3, 4 ) 0.6465681194410596, 0.3534318805589405;
    ( 3, 5 ) 0.774880694143167, 0.22511930585683296;
    ( 4, 0 ) 0.6808603518948755, 0.3191396481051246;
    ( 4, 1 ) 0.4986190494457018, 0.5013809505542982;
    ( 4, 2 ) 0.6181632900502884, 0.3818367099497116;
    ( 4, 3 ) 0.6582188751148363, 0.34178112488516377;
    ( 4, 4 ) 0.8486745766264371, 0.15132542337356286;
    ( 4, 5 ) 0.9285785099386991, 0.07142149006130104;
    ( 5, 0 ) 0.8417156619678402, 0.1582843380321598;
    ( 5, 1 ) 0.5453727043572201, 0.45462729564278;
    ( 5, 2 ) 0.7685621231459883, 0.2314378768540117;
    ( 5, 3 ) 0.7958662656501364, 0.2041337343498636;
    ( 5, 4 ) 0.9131772611895328, 0.08682273881046733;
    ( 5, 5 ) 0.9598546403634943, 0.04014535963650565;

}
probability ( desemp_ingles | cole_naturaleza, estu_genero ) {
    ( 0, 0 ) 0.14872956789124453, 0.21631331930733128, 0.258779737821654, 0.25752818686950424, 0.11864918811026595;
    ( 0, 1 ) 0.14252914722640575, 0.22181381583797619, 0.26221445196895177, 0.24102412874279877, 0.13241845622386755;
    ( 1, 0 ) 0.3302753210413231, 0.3556987957827412, 0.22414430620096937, 0.08111727377204817, 0.008764303202918104;
    ( 1, 1 ) 0.4005263291503423, 0.3623124635081276, 0.18160048063497974, 0.050373592154141666, 0.005187134552408675;

}
probability ( estu_genero ) {
    table 0.47489873754545725, 0.5251012624545428 ;
}
probability ( fami_cuartoshogar ) {
    table 0.0335554044420792, 0.32582200803529493, 0.4328990463425612, 0.13367465268538506, 0.04188307102004882, 0.03216581747463101 ;
}
probability ( fami_educacionmadre ) {
    table 0.03276698630451994, 0.13388161244649435, 0.39869155439920906, 0.1657632708840467, 0.21040744792333949, 0.05848912804239062 ;
}
probability ( fami_educacionpadre ) {
    table 0.10754844665201525, 0.16930129727634385, 0.3941778605616823, 0.1118453255017132, 0.16542819317558402, 0.05169887683266154 ;
}
probability ( fami_estratovivienda | fami_cuartoshogar, fami_personashogar ) {
    ( 1, 1 ) 0.15072086155984016, 0.45650512419663014, 0.33331596317526485, 0.03190898037172138, 0.00627062706270627, 0.021278443633837064;
    ( 1, 2 ) 0.18356941633932464, 0.4613934849025909, 0.2871285164464547, 0.03858667618934253, 0.008590247192794507, 0.020731658929492518;
    ( 1, 3 ) 0.20709793351302785, 0.39469901168014376, 0.27502246181491463, 0.0583108715184187, 0.022731356693620846, 0.04213836477987422;
    ( 1, 4 ) 0.19222577209797656, 0.42225772097976566, 0.345580404685836, 0.0005324813631522896, 0.019701810436634715, 0.019701810436634715;
    ( 1, 5 ) 0.18176100628930816, 0.43081761006289304, 0.24968553459119497, 0.04591194968553458, 0.0006289308176100628, 0.09119496855345911;
    ( 2, 1 ) 0.07700865053389343, 0.3799233736223145, 0.3939944506008986, 0.10221288731970897, 0.02690943140135213, 0.019951206521832507;
    ( 2, 2 ) 0.10460415554816473, 0.4644955616229275, 0.33951973227936383, 0.06130580843433446, 0.01642960086833889, 0.013645141246870707;
    ( 2, 3 ) 0.16484747230988184, 0.5308396757626386, 0.26286120908359634, 0.019163418105315265, 0.006243425530598355, 0.016044799207969803;
    ( 2, 4 ) 0.22542456923267634, 0.4753315978678567, 0.24773769678938887, 0.024606421222263548, 0.00898723193256477, 0.017912482955249786;
    ( 2, 5 ) 0.1851566512583462, 0.3977914740626605, 0.305341551104263, 0.04648176682074987, 0.01874678993323061, 0.04648176682074987;
    ( 3, 1 ) 0.07092415291641202, 0.29459496163509197, 0.4510423032525293, 0.13448088544849593, 0.03303456236843892, 0.01592313437903171;
    ( 3, 2 ) 0.05213088695685887, 0.3327391856396538, 0.40573502757504387, 0.13604819090265866, 0.042954067440124845, 0.030392641485660014;
    ( 3, 3 ) 0.10090966464277167, 0.44444952231725104, 0.3637548693173163, 0.06064068246610521, 0.015749385214685212, 0.01449587604187069;
    ( 3, 4 ) 0.17073123524174502, 0.4724383540432779, 0.29684899159989153, 0.032768164750512904, 0.007683970115743428, 0.019529284248829014;
    ( 3, 5 ) 0.164659977703456, 0.5138238573021182, 0.2569676700111483, 0.03221850613154962, 0.0201783723522854, 0.012151616499442588;
    ( 4, 1 ) 0.02380952380952381, 0.27038486627527725, 0.3760600130463145, 0.15296803652968038, 0.08251793868232225, 0.09425962165688195;
    ( 4, 2 ) 0.06210746261404085, 0.34703038254552526, 0.3815797465894044, 0.11589951042919448, 0.04833145036869663, 0.04505144745313848;
    ( 4, 3 ) 0.0752756522503938, 0.3963675469948108, 0.3685904355265578, 0.0860698665515284, 0.0344015607634308, 0.03929493791327848;
    ( 4, 4 ) 0.12187966531264102, 0.4805922994132555, 0.33935701142242125, 0.03751345345970905, 0.010641252647293683, 0.010016317744679372;
    ( 4, 5 ) 0.17366620003110905, 0.4368486545341422, 0.31925649401151035, 0.042074972779592476, 0.008477212630269093, 0.019676466013376886;
    ( 5, 1 ) 0.06357388316151201, 0.24914089347079035, 0.3109965635738831, 0.1254295532646048, 0.0017182130584192437, 0.24914089347079035;
    ( 5, 2 ) 0.0728994300422872, 0.3012502298216584, 0.34758227615370474, 0.12585034013605445, 0.06958999816142675, 0.08282772568486856;
    ( 5, 3 ) 0.07436833168605386, 0.38501989406725967, 0.39140626979903187, 0.07619301046656021, 0.03696241668567373, 0.036050077295420556;
    ( 5, 4 ) 0.11970725400563324, 0.45715011312739523, 0.35741330747564287, 0.041580089578427286, 0.008334487694509857, 0.01581474811839128;
    ( 5, 5 ) 0.16791006113356124, 0.4514039995855351, 0.31898248886125785, 0.029893275308258208, 0.005647083203813076, 0.02616309190757434;
    ( 6, 1 ) 0.06776556776556775, 0.3974358974358974, 0.26556776556776557, 0.0018315018315018313, 0.1336996336996337, 0.1336996336996337;
    ( 6, 2 ) 0.12638645650904848, 0.3050204319906597, 0.3995913601868068, 0.08435493286631641, 0.031815528312901346, 0.05283129013426737;
    ( 6, 3 ) 0.08415689879721136, 0.39167241247222856, 0.4040833524860185, 0.06347199877422814, 0.034513138742051634, 0.0221021987282617;
    ( 6, 4 ) 0.0886202606955487, 0.45856996051706417, 0.37581805397804097, 0.04286332413867705, 0.008789009681432203, 0.02533939098923684;
    ( 6, 5 ) 0.1085008524642163, 0.4682011022560564, 0.3704254391181951, 0.025712699734348355, 0.0057293525236905745, 0.021430553903493115;

}
probability ( fami_personashogar ) {
    table 0.08870689570213562, 0.5575890173353438, 0.27030915846219045, 0.05682523726458327, 0.02656969123574688 ;
}
probability ( fami_tieneautomovil | fami_estratovivienda ) {
    ( 1 ) 0.840135557301277, 0.159864442698723;
    ( 2 ) 0.7346324148573132, 0.26536758514268677;
    ( 3 ) 0.5393174043070246, 0.4606825956929754;
    ( 4 ) 0.2084478616049976, 0.7915521383950024;
    ( 5 ) 0.12051407889086561, 0.8794859211091345;
    ( 6 ) 0.2551484262001515, 0.7448515737998485;

}
probability ( fami_tienecomputador | fami_tieneinternet ) {
    ( 0 ) 0.6867513110681756, 0.31324868893182445;
    ( 1 ) 0.13080893611725813, 0.8691910638827419;

}
probability ( fami_tieneinternet | fami_estratovivienda ) {
    ( 1 ) 0.24273343442278528, 0.7572665655772146;
    ( 2 ) 0.11261235853199626, 0.8873876414680038;
    ( 3 ) 0.04690155180221584, 0.9530984481977842;
    ( 4 ) 0.017347429120615092, 0.982652570879385;
    ( 5 ) 0.02186982393718177, 0.9781301760628183;
    ( 6 ) 0.09563330807906882, 0.9043666919209312;

}
probability ( fami_tienelavadora | fami_estratovivienda ) {
    ( 1 ) 0.19548933993459633, 0.8045106600654036;
    ( 2 ) 0.09936503076135876, 0.9006349692386413;
    ( 3 ) 0.04940344615770902, 0.950596553842291;
    ( 4 ) 0.018962037481979818, 0.9810379625180202;
    ( 5 ) 0.01598061468621557, 0.9840193853137845;
    ( 6 ) 0.07414422480887115, 0.9258557751911289;

}
probability ( punt_global | cole_jornada, desemp_ingles, fami_tieneautomovil, fami_tienecomputador ) {
    ( 0, 1, 0, 0 ) 0.2989941853873439, 0.5280154192513888, 0.16682917348277482, 0.006157982539965339, 3.2393385270727717e-06;
    ( 0, 1, 0, 1 ) 0.24177494865730326, 0.5460351758304863, 0.20245276958565708, 0.009735159284024875, 1.9466425282993154e-06;
    ( 0, 1, 1, 0 ) 0.25525588738323907, 0.5736350480199974, 0.16316274174450732, 0.00792001052493093, 2.631232732535193e-05;
    ( 0, 1, 1, 1 ) 0.2580311905291515, 0.555601690516794, 0.17696547292454462, 0.009396702997948644, 4.943031561256519e-06;
    ( 0, 2, 0, 0 ) 0.027934465474676443, 0.360594498890302, 0.5301663300167078, 0.08129971821151592, 4.987406797835466e-06;
    ( 0, 2, 0, 1 ) 0.02993728248592758, 0.35481951497231423, 0.5223110898889817, 0.0921956639516625, 0.0007364487011138556;
    ( 0, 2, 1, 0 ) 0.04368180916484824, 0.38091648482443957, 0.5039079547708788, 0.07145407657210871, 3.9674667724657806e-05;
    ( 0, 2, 1, 1 ) 0.031529391984195375, 0.363174376326685, 0.515335953426788, 0.08953573905550534, 0.00042453920682625413;
    ( 0, 3, 0, 0 ) 0.0012832729813861891, 0.10928149418715458, 0.5463566482434408, 0.3316307731402071, 0.011447811447811448;
    ( 0, 3, 0, 1 ) 0.0030545765246181777, 0.0997879190125265, 0.5303580964587052, 0.3579469339802566, 0.00885247402389344;
    ( 0, 3, 1, 0 ) 8.061265618702137e-05, 0.15324465941152762, 0.5563079403466344, 0.2822249093107618, 0.008141878274889158;
    ( 0, 3, 1, 1 ) 0.0034539237378236258, 0.10230165799833338, 0.5281514898997155, 0.3568920433320882, 0.009200885032039311;
    ( 0, 4, 0, 0 ) 6.846970215679561e-05, 0.006915439917836357, 0.24655939746662098, 0.6573776104073947, 0.08907908250599109;
    ( 0, 4, 0, 1 ) 9.496225250462942e-06, 0.014253834100944876, 0.22601965718626846, 0.650500925881962, 0.10921608660557429;
    ( 0, 4, 1, 0 ) 0.0004158004158004159, 0.0004158004158004159, 0.2498960498960499, 0.5825363825363826, 0.16673596673596675;
    ( 0, 4, 1, 1 ) 0.0025570892436867884, 0.021639844793588197, 0.2531772787990586, 0.5953946949939571, 0.12723109216970932;
    ( 0, 5, 0, 0 ) 0.0006230529595015578, 0.0006230529595015578, 0.06292834890965733, 0.6236760124610593, 0.3121495327102804;
    ( 0, 5, 0, 1 ) 7.689350249903882e-05, 7.689350249903882e-05, 0.04621299500192233, 0.5383314109957709, 0.4153018069973087;
    ( 0, 5, 1, 0 ) 0.0032786885245901644, 0.0032786885245901644, 0.3311475409836066, 0.659016393442623, 0.0032786885245901644;
    ( 0, 5, 1, 1 ) 7.689350249903882e-05, 0.015455594002306802, 0.0615916955017301, 0.5075740099961553, 0.4153018069973087;
    ( 2, 1, 0, 0 ) 0.2589544791586705, 0.5649855428469077, 0.17042040889434765, 0.005634451523758348, 5.117576315856811e-06;
    ( 2, 1, 0, 1 ) 0.22417033605916775, 0.5764320161643888, 0.19252778254322256, 0.006866052877375574, 3.8123558452945997e-06;
    ( 2, 1, 1, 0 ) 0.2655182151934482, 0.5931092911606891, 0.1299632872070037, 0.011352725218864728, 5.648121999435188e-05;
    ( 2, 1, 1, 1 ) 0.22505655124412738, 0.5985847688649151, 0.17169537729830056, 0.004651702337451424, 1.1600255205614524e-05;
    ( 2, 2, 0, 0 ) 0.026044122303930193, 0.41167446606382607, 0.5017487069420499, 0.05982196263326414, 0.0007107420569297351;
    ( 2, 2, 0, 1 ) 0.027211472287575422, 0.3601126742529729, 0.5291240537123285, 0.08322850146444519, 0.0003232982826779341;
    ( 2, 2, 1, 0 ) 0.028138163437236734, 0.3426565571468689, 0.584161752316765, 0.04498736310025274, 5.616399887672003e-05;
    ( 2, 2, 1, 1 ) 0.027444302540087985, 0.3566624095359728, 0.5364079277233811, 0.07947589991012725, 9.46029043091623e-06;
    ( 2, 3, 0, 0 ) 1.782372337581321e-05, 0.10517779164067374, 0.5489885036984227, 0.33866856786382676, 0.007147313073701096;
    ( 2, 3, 0, 1 ) 0.001828620029768233, 0.10510616323926976, 0.5528446888004617, 0.3353543331004526, 0.00486619483004769;
    ( 2, 3, 1, 0 ) 0.00014914243102162562, 0.13437733035048469, 0.6116331096196866, 0.2536912751677852, 0.00014914243102162562;
    ( 2, 3, 1, 1 ) 0.005819606704883535, 0.08563964879181482, 0.5456933459110369, 0.35993033887236053, 0.0029170597199042157;
    ( 2, 4, 0, 0 ) 9.086778736937755e-05, 0.009177646524307132, 0.19999999999999998, 0.7088596092685143, 0.08187187641980917;
    ( 2, 4, 0, 1 ) 0.0019018924771678752, 0.015083325487242257, 0.21468788249694004, 0.6779210997081254, 0.09040579983052444;
    ( 2, 4, 1, 0 ) 0.0007662835249042146, 0.0007662835249042146, 0.30727969348659007, 0.6137931034482759, 0.07739463601532567;
    ( 2, 4, 1, 1 ) 3.9207998431680065e-05, 0.015722407371103704, 0.24704959811801608, 0.6430503822779847, 0.09413840423446385;
    ( 2, 5, 0, 0 ) 0.004878048780487806, 0.004878048780487806, 0.49268292682926834, 0.49268292682926834, 0.004878048780487806;
    ( 2, 5, 0, 1 ) 0.00018850141376060322, 0.00018850141376060322, 0.056738925541941564, 0.5845428840716306, 0.35834118755890676;
    ( 2, 5, 1, 0 ) 0.009523809523809523, 0.009523809523809523, 0.009523809523809523, 0.9619047619047618, 0.009523809523809523;
    ( 2, 5, 1, 1 ) 0.00034423407917383823, 0.034767641996557665, 0.13803786574870913, 0.5855421686746989, 0.2413080895008606;
    ( 3, 1, 0, 0 ) 0.20168043691359758, 0.5797787424730431, 0.21008262148158524, 0.00843019184988097, 2.800728189329226e-05;
    ( 3, 1, 0, 1 ) 0.15212861829061677, 0.5486536173894236, 0.281900436177499, 0.01731011859702246, 7.209545438160124e-06;
    ( 3, 1, 1, 0 ) 0.18447355652595826, 0.5338185346918971, 0.28151382823871907, 9.704027171276079e-05, 9.704027171276079e-05;
    ( 3, 1, 1, 1 ) 0.1589465806635544, 0.55593884751078, 0.27013292469976125, 0.01497451979615837, 7.127329745910695e-06;
    ( 3, 2, 0, 0 ) 0.005901382217429664, 0.3215567101264582, 0.5744730908734438, 0.09412802666405255, 0.003940790118615822;
    ( 3, 2, 0, 1 ) 0.019408146977355597, 0.2907654027323516, 0.5661914524029358, 0.12237993145647172, 0.0012550664308852756;
    ( 3, 2, 1, 0 ) 0.016178446654125236, 0.2902983069067455, 0.6127922601451223, 0.0806772373018006, 5.374899220639613e-05;
    ( 3, 2, 1, 1 ) 0.01817002115207433, 0.2867883884195637, 0.5717574389120308, 0.12224341755232866, 0.0010407339640025434;
    ( 3, 3, 0, 0 ) 2.7929060187124707e-05, 0.07264348554671136, 0.5223013545594191, 0.3994134897360704, 0.005613741097612065;
    ( 3, 3, 0, 1 ) 0.0010100628455561012, 0.06398156194506366, 0.4806009999874057, 0.4340020906537701, 0.02040528456820443;
    ( 3, 3, 1, 0 ) 6.6203243958954e-05, 0.07288977159880834, 0.5694141012909634, 0.34432307183051974, 0.013306852035749751;
    ( 3, 3, 1, 1 ) 0.002819002162726527, 0.06761793488618754, 0.48657369428493297, 0.4285695345580497, 0.014419834108103179;
    ( 3, 4, 0, 0 ) 6.0222824450466725e-05, 0.006082505269497139, 0.15061728395061727, 0.6625112917795845, 0.18072869617585063;
    ( 3, 4, 0, 1 ) 0.00033937601854807547, 0.006387661497622688, 0.1505384654155676, 0.6663228104366525, 0.176411686631609;
    ( 3, 4, 1, 0 ) 0.00012812299807815503, 0.02575272261370916, 0.20512491992312623, 0.6279308135810378, 0.1410634208840487;
    ( 3, 4, 1, 1 ) 0.000398778492458317, 0.007950397784858341, 0.1636197428474904, 0.6429488410914077, 0.1850822397837852;
    ( 3, 5, 0, 0 ) 0.000554016620498615, 0.000554016620498615, 0.000554016620498615, 0.44376731301939065, 0.5545706371191137;
    ( 3, 5, 0, 1 ) 1.3226638449837975e-05, 0.0026585543284174326, 0.034402486608028575, 0.4192976654983136, 0.5436280669267906;
    ( 3, 5, 1, 0 ) 0.0011049723756906076, 0.0011049723756906076, 0.0011049723756906076, 0.11160220994475137, 0.8850828729281767;
    ( 3, 5, 1, 1 ) 0.00040903124713830745, 0.001630020044566091, 0.03154424558154679, 0.3760665845890864, 0.5903501185376624;
    ( 4, 1, 0, 0 ) 0.4343616245521702, 0.4698709616055293, 0.09448654132716147, 0.0012745315620937825, 6.3409530452427e-06;
    ( 4, 1, 0, 1 ) 0.4240689442905509, 0.48083854861324854, 0.0923429431278, 0.002742724257036353, 6.839711364180432e-06;
    ( 4, 1, 1, 0 ) 0.49181781539701724, 0.43538895606610234, 0.07263200322450623, 8.061265618702135e-05, 8.061265618702135e-05;
    ( 4, 1, 1, 1 ) 0.406079098697336, 0.4976176505105035, 0.09156202323670931, 0.0047177561319094, 2.3471423541837815e-05;
    ( 4, 2, 0, 0 ) 0.05779357849127876, 0.44441728696811467, 0.47552494167314746, 0.022241973114098434, 2.22197533607377e-05;
    ( 4, 2, 0, 1 ) 0.05971312494818008, 0.45271536356852665, 0.4311582787496891, 0.056396650360666614, 1.658237293756737e-05;
    ( 4, 2, 1, 0 ) 0.0817533129459735, 0.4283384301732926, 0.46911314984709485, 0.020591233435270133, 0.00020387359836901122;
    ( 4, 2, 1, 1 ) 0.06840418713950011, 0.4486648152104251, 0.4273018585772271, 0.05558641315958128, 4.272591326639607e-05;
    ( 4, 3, 0, 0 ) 9.61076405574243e-05, 0.11542527630946658, 0.6920711196540125, 0.19231138875540604, 9.61076405574243e-05;
    ( 4, 3, 0, 1 ) 0.005399625768511094, 0.20855386260358194, 0.4758620689655173, 0.30478481689387865, 0.005399625768511094;
    ( 4, 3, 1, 0 ) 0.0914027149321267, 0.18190045248868777, 0.5438914027149322, 0.18190045248868777, 0.000904977375565611;
    ( 4, 3, 1, 1 ) 8.768084173608066e-05, 0.21928978518193773, 0.6226216571679088, 0.15791319596668127, 8.768084173608066e-05;
    ( 4, 4, 0, 0 ) 0.000664451827242525, 0.06710963455149502, 0.5322259136212625, 0.3993355481727575, 0.000664451827242525;
    ( 4, 4, 0, 1 ) 0.00022701475595913738, 0.022928490351872874, 0.3180476730987514, 0.5223609534619751, 0.13643586833144156;
    ( 4, 4, 1, 0 ) 0.009523809523809523, 0.009523809523809523, 0.9619047619047618, 0.009523809523809523, 0.009523809523809523;
    ( 4, 4, 1, 1 ) 0.00022701475595913732, 0.045629965947786594, 0.38615209988649263, 0.45425652667423383, 0.1137343927355278;
    ( 4, 5, 0, 0 ) 0.19999999999999998, 0.19999999999999998, 0.19999999999999998, 0.19999999999999998, 0.19999999999999998;
    ( 4, 5, 0, 1 ) 0.0008298755186721993, 0.08381742738589212, 0.0008298755186721993, 0.5817427385892117, 0.3327800829875519;
    ( 4, 5, 1, 0 ) 0.19999999999999998, 0.19999999999999998, 0.19999999999999998, 0.19999999999999998, 0.19999999999999998;
    ( 4, 5, 1, 1 ) 0.0007662835249042146, 0.0007662835249042146, 0.07739463601532567, 0.6904214559386973, 0.23065134099616857;
    ( 5, 1, 0, 0 ) 0.21520261227985654, 0.5685027568117339, 0.20877897328836786, 0.00750495155505594, 1.0706064985814465e-05;
    ( 5, 1, 0, 1 ) 0.1774941817344825, 0.5626505715966343, 0.24705762000971843, 0.01279251170046802, 5.114958696708525e-06;
    ( 5, 1, 1, 0 ) 0.16912899669239254, 0.5733921352443956, 0.2426313855200294, 0.014773980154355017, 7.35023888276369e-05;
    ( 5, 1, 1, 1 ) 0.18482345021724497, 0.550774126430451, 0.2545866226057157, 0.009803561593537728, 1.2239153050608898e-05;
    ( 5, 2, 0, 0 ) 0.01850824220662641, 0.33513954627060555, 0.554931722974811, 0.0914096077471302, 1.0880800826940864e-05;
    ( 5, 2, 0, 1 ) 0.013617004725695726, 0.31855078664358916, 0.56008634604539, 0.107741973123821, 3.889461504054763e-06;
    ( 5, 2, 1, 0 ) 0.01425026586316909, 0.3970932293512939, 0.5105281814959235, 0.07805742644452322, 7.089684509039349e-05;
    ( 5, 2, 1, 1 ) 0.019899774300906625, 0.31751654489116715, 0.5523966183390077, 0.10788416663478827, 0.002302895834130293;
    ( 5, 3, 0, 0 ) 2.3806689679800027e-05, 0.0976312343768599, 0.5190096417093204, 0.3761695036305202, 0.007165813593619808;
    ( 5, 3, 0, 1 ) 5.3848846288468276e-06, 0.06893190813386822, 0.5061845399962306, 0.4119490589914111, 0.012929107993861233;
    ( 5, 3, 1, 0 ) 0.00014914243102162562, 0.10454884414615956, 0.5072334079045487, 0.37300521998508573, 0.015063385533184188;
    ( 5, 3, 1, 1 ) 0.0029278731579203345, 0.07101794659792812, 0.4902582559214046, 0.41341374446768153, 0.022382179855065416;
    ( 5, 4, 0, 0 ) 0.00011229646266142618, 0.011341942728804044, 0.22470522178551378, 0.685120718697361, 0.07871982032565975;
    ( 5, 4, 0, 1 ) 1.3071041108424288e-05, 0.010469903927847853, 0.1869289588915757, 0.6601006470165349, 0.14248741912293317;
    ( 5, 4, 1, 0 ) 0.0005540166204986149, 0.0005540166204986149, 0.11135734072022159, 0.831578947368421, 0.05595567867036011;
    ( 5, 4, 1, 1 ) 1.8414510634379893e-05, 0.014750023018138294, 0.2044194825522512, 0.6500506399042446, 0.13076144001473164;
    ( 5, 5, 0, 0 ) 0.0019801980198019802, 0.0019801980198019802, 0.0019801980198019802, 0.7940594059405941, 0.2;
    ( 5, 5, 0, 1 ) 0.00012338062924120913, 0.00012338062924120913, 0.06181369524984577, 0.5429981492905613, 0.3949413942011104;
    ( 5, 5, 1, 0 ) 0.004878048780487806, 0.004878048780487806, 0.004878048780487806, 0.004878048780487806, 0.9804878048780488;
    ( 5, 5, 1, 1 ) 0.0001110494169905608, 0.0001110494169905608, 0.02232093281510272, 0.5442531926707385, 0.43320377568017765;

}
